-98 -72 34 -110 -63 -80 31 -47 -100 -43 97 113 -10 -41 -116 -68 4 98 -50 -29 -70 -60 -13 120 19 99 62 -87 106 -106 -68 -85 99 101 -67 -127 115 -70 35 -102 99 -4 -10 65 -123 -12 56 -45 -76 126 -91 48 65 -74 87 -90 -3 -30 -128 117 5 3 -64 76 42 -13 102 -97 49 -26 18 -30 -101 -115 125 -101 -101 -65 84 -27 54 -63 -30 -53 73 66 42 -115 77 -42 -51 80 57 104 48 -73 80 -75 -124 -31 -66 -74 62 -26 -53 -108 -112 65 38 -2 11 45 -17 -38 113 -50 111 -22 -7 -113 21 27 49 100 -120 -22 58 33 122 -34 106 -1 -116 99 10 51 -118 -62 -100 -99 22 46 -23 47 13 75 -4 64 -52 110 -90 -95 24 86 -23 105 -71 117 98 126 90 0 28 -83 -117 121 -74 -87 6 
-110 81 57 116 44 -56 -24 79 119 -32 39 -68 -94 62 26 4 80 -64 17 -33 -32 -5 31 91 -77 -93 65 -37 93 -59 77 -97 86 17 -74 -52 75 -95 112 119 72 -20 96 -36 45 -103 -25 -80 81 90 43 0 -86 -66 13 91 7 -71 -72 -21 54 92 -43 69 122 25 -27 84 67 80 32 -24 -10 -28 93 110 -52 84 -1 -8 49 16 11 -57 93 43 -20 -125 -45 109 -4 106 62 120 -79 121 -92 36 10 119 114 -75 -37 -125 -69 -98 111 -40 -35 104 -110 67 106 -46 -90 -107 2 97 63 73 98 -2 28 -111 51 81 -115 105 -108 39 55 108 -91 36 10 -36 10 -28 -90 -90 -26 -45 48 29 99 98 -67 97 74 -30 -106 22 -25 98 38 76 -6 83 5 -85 -95 -69 -48 22 -18 -81 73 -46 2 
-12 7 122 -126 -81 -101 -28 100 -120 96 117 -31 94 -116 -93 39 -94 -31 -45 63 74 46 79 -29 65 23 -126 -41 98 43 -37 -16 5 22 84 -124 79 8 -79 -65 -55 80 25 -118 117 -121 -67 -69 -116 -96 -2 5 -111 54 25 -71 24 26 112 -31 -124 -124 100 -28 39 61 2 39 -50 -121 -59 -118 -115 -9 -92 111 -89 -71 4 -44 15 83 -59 -33 12 36 -101 88 25 28 3 53 -83 -57 -72 -77 76 -56 -107 -74 -117 44 71 103 55 30 -113 -107 80 38 -113 -111 10 -70 48 100 -51 48 -63 87 -44 -99 30 -75 34 -95 -41 43 -79 -31 -113 -19 -118 -43 -74 -82 3 105 79 -32 45 25 127 -82 5 107 -1 -99 76 -17 -1 -105 44 -78 89 40 126 65 40 0 -35 -35 -125 60 -123 29 -6 104 -56 

124 -85 116 59 92 93 -4 104 29 96 -53 -118 -47 98 105 -41 -8 -14 -85 -104 -52 -71 -127 -79 88 25 -110 -60 -41 45 -21 -108 -10 77 10 -91 113 19 94 18 94 -90 7 -19 107 -63 4 -113 -110 -6 -34 127 -55 -20 -107 -81 -45 -72 54 56 15 46 -23 56 118 21 63 -47 41 81 -99 100 39 -66 7 -83 56 -25 -52 33 -22 -113 113 -88 57 12 63 96 -36 126 46 122 56 52 40 -124 -12 -45 117 66 -10 76 -91 14 -16 120 107 -19 -14 -30 112 -119 59 109 -88 -45 7 80 84 -27 -8 121 -92 -103 -36 58 84 -44 -69 -48 -63 -98 -65 16 -104 54 -19 76 -84 -121 119 -63 -111 -29 13 110 -17 117 99 103 -15 103 -19 113 32 -1 118 -45 -68 -113 -102 -64 -29 79 110 67 -107 127 108 
-88 93 122 125 34 -110 8 63 18 -93 -78 -85 -87 -77 16 -78 21 -17 -121 7 16 99 -4 53 -112 -29 125 -123 28 -109 103 6 43 -97 -36 -114 -3 -33 103 116 -33 -49 -16 -60 -112 104 114 38 66 -108 -117 8 -55 -48 -98 11 -64 27 -77 -69 43 3 26 -101 -24 -55 -26 -78 4 -25 97 -85 -97 -19 -14 -25 -4 -8 -57 -52 41 -98 -73 17 -39 -33 20 -104 -31 79 26 88 2 125 -96 -8 23 -87 33 56 -126 20 108 -49 -125 -2 23 -75 112 117 -84 112 100 -87 112 95 93 -91 30 71 116 -92 -114 58 122 4 109 58 -31 43 -18 24 23 -65 42 -80 22 -96 22 20 54 -78 87 112 -53 120 124 -124 -29 -60 -18 24 123 -32 24 78 -12 -71 66 -3 -119 -89 80 82 59 53 -23 -92 -109 
72 -32 114 89 88 45 -47 114 -71 -42 21 84 -81 -77 -82 -92 -88 20 77 -11 -34 -69 -88 28 -2 34 47 -51 6 119 77 -86 101 106 -48 18 55 -84 -91 -21 76 -28 83 -118 82 122 37 -90 -104 13 45 64 57 119 107 114 41 -87 -29 79 34 -48 -125 -74 -70 -33 49 48 -63 8 19 -82 -42 125 -55 38 27 -43 23 36 -7 -70 40 -114 -71 -83 114 62 3 126 49 7 -74 107 83 -5 67 46 1 53 67 55 -19 -40 -18 -92 51 109 45 -64 -93 33 105 38 -43 -128 2 -106 82 16 -92 -74 73 -8 -12 -35 9 -25 -70 90 -31 -18 3 66 93 73 39 -83 -51 97 -65 108 -119 124 54 20 -16 49 85 -61 110 -11 -43 -12 44 72 -19 -62 -63 -69 93 -51 -73 1 111 88 -20 53 37 

-68 -108 50 39 -127 -89 -11 -92 113 23 87 -80 -60 46 55 -71 -121 -81 91 43 69 -102 -58 -54 33 -113 119 114 32 116 32 -25 -12 8 57 -115 -69 -96 122 -77 71 83 34 33 -91 125 -1 64 -116 100 66 -39 -78 -25 -48 118 63 -102 -15 -78 -76 -67 -36 -82 -15 -40 -72 -62 -111 58 -91 -87 87 53 -88 43 -45 34 -87 100 1 121 -14 99 31 72 -16 -43 -103 -2 -91 -78 -23 -18 123 -66 71 -113 -96 -107 53 64 -125 110 48 -106 -46 -90 20 108 -48 33 1 -79 -24 98 93 -7 32 9 -60 -39 -89 -33 69 118 -10 -116 67 -119 86 -17 -99 9 -58 99 -37 -67 18 -14 -59 -33 48 85 -48 -103 115 -123 -72 -37 -37 -111 25 -26 33 -94 -94 -112 56 -82 84 84 89 114 122 -87 101 -88 61 
39 47 117 91 -37 72 97 54 -89 19 82 15 -51 -117 -50 101 -123 -109 61 -98 -102 104 -25 -93 104 -107 -37 -28 -115 -96 20 -81 113 88 -18 -45 -88 34 -20 -28 0 38 -122 -54 -49 -23 9 -70 -21 -85 19 -81 -111 122 29 -98 83 -40 -88 -90 36 -122 -117 123 -127 118 83 -79 109 -102 -81 -64 -103 -23 78 104 -46 -64 -93 82 8 -94 -33 -65 70 101 -101 -106 114 -81 99 -77 -50 -118 124 34 50 -62 116 67 -99 49 113 -82 66 62 -60 77 125 89 -46 84 82 -29 14 -128 -61 -46 -101 120 -5 -31 -4 29 87 14 -105 88 -55 36 114 14 30 94 4 34 122 22 52 -123 -55 -116 -5 -76 98 -116 4 -34 85 -43 -69 94 -24 -44 74 -52 -51 55 5 52 -27 82 -108 6 59 -56 -23 71 40 
2 -25 46 -64 -70 80 121 68 -95 74 -119 -85 -40 80 115 54 1 -37 -31 88 -47 -22 26 30 -22 -4 122 -128 -104 -44 81 57 -35 -18 92 122 -44 -112 47 65 96 -117 95 -103 -69 -2 115 79 43 -42 -89 89 62 117 53 96 31 -34 -11 -57 -120 -88 -83 -115 -77 121 -31 -102 27 -45 103 -119 0 125 96 -22 -1 -93 55 -13 73 -43 -19 59 66 -18 100 7 -122 84 -26 8 113 34 -46 79 42 -73 49 85 18 84 117 109 96 -123 -22 -82 -4 59 -20 -10 61 -68 91 -103 -67 -102 84 27 20 36 51 68 -48 -53 -88 45 -14 82 104 -95 -7 -30 -38 -108 -23 -46 -70 87 25 -123 -32 -23 -14 102 18 57 59 -119 14 62 -50 82 -2 -29 -65 5 -18 -76 99 27 -56 41 42 108 99 118 -85 

